<?xml version="1.0" encoding="UTF-8"?>
<BIF VERSION="0.3"  xmlns="http://www.cs.ubc.ca/labs/lci/fopi/ve/XMLBIFv0_3"
	xmlns:xsi="http://www.w3.org/2001/XMLSchema-instance"
	xsi:schemaLocation="http://www.cs.ubc.ca/labs/lci/fopi/ve/XMLBIFv0_3 http://www.cs.ubc.ca/labs/lci/fopi/ve/XMLBIFv0_3/XMLBIFv0_3.xsd">
<NETWORK>
<NAME>Untitled</NAME>
<PROPERTY>detailed = </PROPERTY>
<PROPERTY>short = </PROPERTY>

<VARIABLE TYPE="nature">
	<NAME>Gripa</NAME>
	<OUTCOME>T</OUTCOME>
	<OUTCOME>F</OUTCOME>
	<PROPERTY>position = (7055.3466796875, 5078.46826171875)</PROPERTY>
</VARIABLE>

<VARIABLE TYPE="nature">
	<NAME>Abces</NAME>
	<OUTCOME>T</OUTCOME>
	<OUTCOME>F</OUTCOME>
	<PROPERTY>position = (7702.6533203125, 5078.46826171875)</PROPERTY>
</VARIABLE>

<VARIABLE TYPE="nature">
	<NAME>Febra</NAME>
	<OUTCOME>T</OUTCOME>
	<OUTCOME>F</OUTCOME>
	<PROPERTY>position = (7355.37646484375, 5272.18701171875)</PROPERTY>
</VARIABLE>

<VARIABLE TYPE="nature">
	<NAME>Oboseala</NAME>
	<OUTCOME>T</OUTCOME>
	<OUTCOME>F</OUTCOME>
	<PROPERTY>position = (7126.22021484375, 5461.18212890625)</PROPERTY>
</VARIABLE>

<VARIABLE TYPE="nature">
	<NAME>Anorexie</NAME>
	<OUTCOME>T</OUTCOME>
	<OUTCOME>F</OUTCOME>
	<PROPERTY>position = (7603.431640625, 5489.53173828125)</PROPERTY>
</VARIABLE>

<VARIABLE TYPE="nature">
	<NAME>Durere</NAME>
	<OUTCOME>T</OUTCOME>
	<OUTCOME>F</OUTCOME>
	<OUTCOME>A</OUTCOME>
	<PROPERTY>position = (7342.0, 5083.0)</PROPERTY>
</VARIABLE>

<DEFINITION>
	<FOR>Gripa</FOR>
	<TABLE>0.1 0.9</TABLE>
</DEFINITION>

<DEFINITION>
	<FOR>Abces</FOR>
	<TABLE>0.05 0.95</TABLE>
</DEFINITION>

<DEFINITION>
	<FOR>Febra</FOR>
	<GIVEN>Gripa</GIVEN>
	<GIVEN>Abces</GIVEN>
	<GIVEN>Durere</GIVEN>
	<TABLE>0.8 0.2 0.8 0.2 0.8 0.2 0.7 0.3 0.7 0.3 0.7 0.3 0.25 0.75 0.25 0.75 0.25 0.75 0.05 0.95 0.05 0.95 0.05 0.95</TABLE>
</DEFINITION>

<DEFINITION>
	<FOR>Oboseala</FOR>
	<GIVEN>Febra</GIVEN>
	<TABLE>0.6 0.4 0.2 0.8</TABLE>
</DEFINITION>

<DEFINITION>
	<FOR>Anorexie</FOR>
	<GIVEN>Febra</GIVEN>
	<TABLE>0.5 0.5 0.1 0.9</TABLE>
</DEFINITION>

<DEFINITION>
	<FOR>Durere</FOR>
	<GIVEN>Gripa</GIVEN>
	<TABLE>0.6 0.1 0.3 0.2 0.6 0.2</TABLE>
</DEFINITION>
</NETWORK>
</BIF>
